<?xml version="1.0"?>
<opencv_storage>
<cascade>
  <stageType>BOOST</stageType>
  <featureType>HAAR</featureType>
  <height>32</height>
  <width>32</width>
  <stageParams>
    <boostType>GAB</boostType>
    <minHitRate>9.9500000476837158e-01</minHitRate>
    <maxFalseAlarm>5.0000000000000000e-01</maxFalseAlarm>
    <weightTrimRate>9.4999998807907104e-01</weightTrimRate>
    <maxDepth>1</maxDepth>
    <maxWeakCount>100</maxWeakCount></stageParams>
  <featureParams>
    <maxCatCount>0</maxCatCount>
    <featSize>1</featSize>
    <mode>BASIC</mode></featureParams>
  <stageNum>15</stageNum>
  <stages>
    <!-- stage 0 -->
    <_>
      <maxWeakCount>4</maxWeakCount>
      <stageThreshold>-1.4490258693695068e+00</stageThreshold>
      <weakClassifiers>
        <_>
          <internalNodes>
            0 -1 121 -1.9577667117118835e-02</internalNodes>
          <leafValues>
            2.6190477609634399e-01 -8.3002835512161255e-01</leafValues></_>
        <_>
          <internalNodes>
            0 -1 35 -7.2631835937500000e-03</internalNodes>
          <leafValues>
            3.4894949197769165e-01 -6.1940497159957886e-01</leafValues></_>
        <_>
          <internalNodes>
            0 -1 151 -8.4253586828708649e-04</internalNodes>
          <leafValues>
            4.3599870800971985e-01 -4.5205691456794739e-01</leafValues></_>
        <_>
          <internalNodes>
            0 -1 161 -5.4124263115227222e-03</internalNodes>
          <leafValues>
            4.5246428251266479e-01 -4.1321802139282227e-01</leafValues></_></weakClassifiers></_>
    <!-- stage 1 -->
    <_>
      <maxWeakCount>9</maxWeakCount>
      <stageThreshold>-1.4006921052932739e+00</stageThreshold>
      <weakClassifiers>
        <_>
          <internalNodes>
            0 -1 95 -4.1689164936542511e-02</internalNodes>
          <leafValues>
            -2.5352111458778381e-01 -8.2017982006072998e-01</leafValues></_>
        <_>
          <internalNodes>
            0 -1 68 -5.9324428439140320e-02</internalNodes>
          <leafValues>
            1.8567505478858948e-01 -4.6622401475906372e-01</leafValues></_>
        <_>
          <internalNodes>
            0 -1 59 -1.3311844319105148e-02</internalNodes>
          <leafValues>
            5.1973998546600342e-01 -2.2932201623916626e-01</leafValues></_>
        <_>
          <internalNodes>
            0 -1 79 3.1131345778703690e-02</internalNodes>
          <leafValues>
            -1.8516507744789124e-01 6.1930102109909058e-01</leafValues></_>
        <_>
          <internalNodes>
            0 -1 61 -7.9412460327148438e-03</internalNodes>
          <leafValues>
            2.7320063114166260e-01 -3.7601453065872192e-01</leafValues></_>
        <_>
          <internalNodes>
            0 -1 115 -6.2705636955797672e-03</internalNodes>
          <leafValues>
            6.3200747966766357e-01 -1.5361465513706207e-01</leafValues></_>
        <_>
          <internalNodes>
            0 -1 178 1.4903311966918409e-04</internalNodes>
          <leafValues>
            1.5713515877723694e-01 -5.4308229684829712e-01</leafValues></_>
        <_>
          <internalNodes>
            0 -1 122 1.7885209526866674e-03</internalNodes>
          <leafValues>
            -2.7409702539443970e-01 3.2585629820823669e-01</leafValues></_>
        <_>
          <internalNodes>
            0 -1 11 -9.0318815782666206e-03</internalNodes>
          <leafValues>
            3.9783886075019836e-01 -2.2615775465965271e-01</leafValues></_></weakClassifiers></_>
    <!-- stage 2 -->
    <_>
      <maxWeakCount>10</maxWeakCount>
      <stageThreshold>-1.6236215829849243e+00</stageThreshold>
      <weakClassifiers>
        <_>
          <internalNodes>
            0 -1 85 6.9065828574821353e-04</internalNodes>
          <leafValues>
            -8.3558559417724609e-01 -4.5098039507865906e-01</leafValues></_>
        <_>
          <internalNodes>
            0 -1 73 -1.2583909556269646e-02</internalNodes>
          <leafValues>
            1.4255429804325104e-01 -4.9891483783721924e-01</leafValues></_>
        <_>
          <internalNodes>
            0 -1 131 1.1807871982455254e-02</internalNodes>
          <leafValues>
            -3.9778140187263489e-01 2.5583484768867493e-01</leafValues></_>
        <_>
          <internalNodes>
            0 -1 124 -1.5698404749855399e-03</internalNodes>
          <leafValues>
            3.6488550901412964e-01 -2.9040649533271790e-01</leafValues></_>
        <_>
          <internalNodes>
            0 -1 136 1.0646127164363861e-02</internalNodes>
          <leafValues>
            -1.7882056534290314e-01 5.2410340309143066e-01</leafValues></_>
        <_>
          <internalNodes>
            0 -1 87 -1.4937056694179773e-03</internalNodes>
          <leafValues>
            4.4955506920814514e-01 -1.7985744774341583e-01</leafValues></_>
        <_>
          <internalNodes>
            0 -1 119 6.5087561961263418e-04</internalNodes>
          <leafValues>
            2.1209853887557983e-01 -4.8946061730384827e-01</leafValues></_>
        <_>
          <internalNodes>
            0 -1 56 1.0878013446927071e-02</internalNodes>
          <leafValues>
            -2.3088730871677399e-01 4.6976140141487122e-01</leafValues></_>
        <_>
          <internalNodes>
            0 -1 31 -7.0508574135601521e-03</internalNodes>
          <leafValues>
            5.4192852973937988e-01 -1.5471433103084564e-01</leafValues></_>
        <_>
          <internalNodes>
            0 -1 158 -1.1104112491011620e-03</internalNodes>
          <leafValues>
            2.8977870941162109e-01 -2.9349541664123535e-01</leafValues></_></weakClassifiers></_>
    <!-- stage 3 -->
    <_>
      <maxWeakCount>8</maxWeakCount>
      <stageThreshold>-1.3283202648162842e+00</stageThreshold>
      <weakClassifiers>
        <_>
          <internalNodes>
            0 -1 91 7.0498706772923470e-03</internalNodes>
          <leafValues>
            -8.0225986242294312e-01 -6.1728395521640778e-02</leafValues></_>
        <_>
          <internalNodes>
            0 -1 92 -2.4465038441121578e-03</internalNodes>
          <leafValues>
            3.7737888097763062e-01 -4.5330965518951416e-01</leafValues></_>
        <_>
          <internalNodes>
            0 -1 130 -1.4007801655679941e-03</internalNodes>
          <leafValues>
            6.2851214408874512e-01 -1.7292089760303497e-01</leafValues></_>
        <_>
          <internalNodes>
            0 -1 47 -1.5669260174036026e-02</internalNodes>
          <leafValues>
            4.7043350338935852e-01 -2.1777556836605072e-01</leafValues></_>
        <_>
          <internalNodes>
            0 -1 104 -9.1471144696697593e-04</internalNodes>
          <leafValues>
            4.0282309055328369e-01 -2.5920289754867554e-01</leafValues></_>
        <_>
          <internalNodes>
            0 -1 107 1.8545005004853010e-03</internalNodes>
          <leafValues>
            -1.6110642254352570e-01 6.0124719142913818e-01</leafValues></_>
        <_>
          <internalNodes>
            0 -1 22 -3.7753357901237905e-05</internalNodes>
          <leafValues>
            -4.4667962193489075e-01 2.4303334951400757e-01</leafValues></_>
        <_>
          <internalNodes>
            0 -1 67 2.0005907863378525e-03</internalNodes>
          <leafValues>
            -1.6680426895618439e-01 5.8573114871978760e-01</leafValues></_></weakClassifiers></_>
    <!-- stage 4 -->
    <_>
      <maxWeakCount>14</maxWeakCount>
      <stageThreshold>-1.7477935552597046e+00</stageThreshold>
      <weakClassifiers>
        <_>
          <internalNodes>
            0 -1 90 -9.5576658844947815e-02</internalNodes>
          <leafValues>
            -1.8095238506793976e-01 -8.0732178688049316e-01</leafValues></_>
        <_>
          <internalNodes>
            0 -1 140 -4.0053226053714752e-02</internalNodes>
          <leafValues>
            3.6396694183349609e-01 -3.8769584894180298e-01</leafValues></_>
        <_>
          <internalNodes>
            0 -1 166 -1.4602922601625323e-04</internalNodes>
          <leafValues>
            -5.5951398611068726e-01 1.5094517171382904e-01</leafValues></_>
        <_>
          <internalNodes>
            0 -1 53 2.1236501634120941e-02</internalNodes>
          <leafValues>
            -1.3087925314903259e-01 6.8556499481201172e-01</leafValues></_>
        <_>
          <internalNodes>
            0 -1 114 -6.6521851113066077e-04</internalNodes>
          <leafValues>
            -5.1727825403213501e-01 2.0470477640628815e-01</leafValues></_>
        <_>
          <internalNodes>
            0 -1 86 5.5712554603815079e-03</internalNodes>
          <leafValues>
            -1.4628614485263824e-01 5.8500909805297852e-01</leafValues></_>
        <_>
          <internalNodes>
            0 -1 27 -1.0301440954208374e-01</internalNodes>
          <leafValues>
            4.8807901144027710e-01 -1.8240520358085632e-01</leafValues></_>
        <_>
          <internalNodes>
            0 -1 167 1.6657420201227069e-04</internalNodes>
          <leafValues>
            1.4945624768733978e-01 -6.3778465986251831e-01</leafValues></_>
        <_>
          <internalNodes>
            0 -1 70 4.9832742661237717e-03</internalNodes>
          <leafValues>
            -1.7081715166568756e-01 5.1321828365325928e-01</leafValues></_>
        <_>
          <internalNodes>
            0 -1 176 3.0544480978278443e-05</internalNodes>
          <leafValues>
            2.5098359584808350e-01 -4.0317684412002563e-01</leafValues></_>
        <_>
          <internalNodes>
            0 -1 41 -1.9395552575588226e-02</internalNodes>
          <leafValues>
            5.5819386243820190e-01 -1.6917391121387482e-01</leafValues></_>
        <_>
          <internalNodes>
            0 -1 118 -9.0665160678327084e-04</internalNodes>
          <leafValues>
            -4.0226450562477112e-01 2.1580253541469574e-01</leafValues></_>
        <_>
          <internalNodes>
            0 -1 48 -2.4819236714392900e-03</internalNodes>
          <leafValues>
            4.0254977345466614e-01 -2.1646587550640106e-01</leafValues></_>
        <_>
          <internalNodes>
            0 -1 182 7.1980815846472979e-05</internalNodes>
          <leafValues>
            1.9316302239894867e-01 -4.3803837895393372e-01</leafValues></_></weakClassifiers></_>
    <!-- stage 5 -->
    <_>
      <maxWeakCount>7</maxWeakCount>
      <stageThreshold>-1.2345975637435913e+00</stageThreshold>
      <weakClassifiers>
        <_>
          <internalNodes>
            0 -1 32 -1.8050044775009155e-01</internalNodes>
          <leafValues>
            -1.2727272510528564e-01 -7.8125000000000000e-01</leafValues></_>
        <_>
          <internalNodes>
            0 -1 154 -3.3124143374152482e-04</internalNodes>
          <leafValues>
            2.0314034819602966e-01 -4.1440263390541077e-01</leafValues></_>
        <_>
          <internalNodes>
            0 -1 162 -1.7489466699771583e-05</internalNodes>
          <leafValues>
            2.8785341978073120e-01 -3.0666434764862061e-01</leafValues></_>
        <_>
          <internalNodes>
            0 -1 129 -3.0718791094841436e-05</internalNodes>
          <leafValues>
            2.8267088532447815e-01 -3.1661504507064819e-01</leafValues></_>
        <_>
          <internalNodes>
            0 -1 76 -2.7482694713398814e-04</internalNodes>
          <leafValues>
            3.0291470885276794e-01 -2.6353919506072998e-01</leafValues></_>
        <_>
          <internalNodes>
            0 -1 77 1.3686200836673379e-03</internalNodes>
          <leafValues>
            -1.3339143991470337e-01 4.3520516157150269e-01</leafValues></_>
        <_>
          <internalNodes>
            0 -1 88 9.9931948352605104e-04</internalNodes>
          <leafValues>
            -1.5378539264202118e-01 4.9735480546951294e-01</leafValues></_></weakClassifiers></_>
    <!-- stage 6 -->
    <_>
      <maxWeakCount>11</maxWeakCount>
      <stageThreshold>-1.5163938999176025e+00</stageThreshold>
      <weakClassifiers>
        <_>
          <internalNodes>
            0 -1 39 -3.1075034290552139e-02</internalNodes>
          <leafValues>
            1. -7.6211452484130859e-01</leafValues></_>
        <_>
          <internalNodes>
            0 -1 46 7.0179259637370706e-04</internalNodes>
          <leafValues>
            -1.0661412775516510e-01 -7.8864282369613647e-01</leafValues></_>
        <_>
          <internalNodes>
            0 -1 126 -2.6757656596601009e-03</internalNodes>
          <leafValues>
            -8.6279779672622681e-01 6.0327924787998199e-02</leafValues></_>
        <_>
          <internalNodes>
            0 -1 4 5.7304149959236383e-04</internalNodes>
          <leafValues>
            1.2297033518552780e-01 -6.8221557140350342e-01</leafValues></_>
        <_>
          <internalNodes>
            0 -1 175 8.2547492638695985e-05</internalNodes>
          <leafValues>
            1.1895332485437393e-01 -4.7447368502616882e-01</leafValues></_>
        <_>
          <internalNodes>
            0 -1 133 3.5196407698094845e-03</internalNodes>
          <leafValues>
            -1.1028633266687393e-01 6.2885260581970215e-01</leafValues></_>
        <_>
          <internalNodes>
            0 -1 12 1.3682761345990002e-04</internalNodes>
          <leafValues>
            1.5942136943340302e-01 -4.3946087360382080e-01</leafValues></_>
        <_>
          <internalNodes>
            0 -1 13 -1.3795820996165276e-04</internalNodes>
          <leafValues>
            -3.8156744837760925e-01 1.7453376948833466e-01</leafValues></_>
        <_>
          <internalNodes>
            0 -1 106 -2.0576172391884029e-04</internalNodes>
          <leafValues>
            3.3328452706336975e-01 -2.1301864087581635e-01</leafValues></_>
        <_>
          <internalNodes>
            0 -1 50 -8.3890371024608612e-04</internalNodes>
          <leafValues>
            3.3768081665039063e-01 -2.1611945331096649e-01</leafValues></_>
        <_>
          <internalNodes>
            0 -1 5 -6.6787074320018291e-04</internalNodes>
          <leafValues>
            -4.6230480074882507e-01 1.7867821455001831e-01</leafValues></_></weakClassifiers></_>
    <!-- stage 7 -->
    <_>
      <maxWeakCount>14</maxWeakCount>
      <stageThreshold>-1.3507958650588989e+00</stageThreshold>
      <weakClassifiers>
        <_>
          <internalNodes>
            0 -1 36 -2.4013236165046692e-01</internalNodes>
          <leafValues>
            6.2500000000000000e-02 -7.7317732572555542e-01</leafValues></_>
        <_>
          <internalNodes>
            0 -1 110 -5.1493095234036446e-03</internalNodes>
          <leafValues>
            6.7442470788955688e-01 -2.9330083727836609e-01</leafValues></_>
        <_>
          <internalNodes>
            0 -1 14 -4.2250868864357471e-04</internalNodes>
          <leafValues>
            -8.2701766490936279e-01 7.1952410042285919e-02</leafValues></_>
        <_>
          <internalNodes>
            0 -1 141 1.2600616319105029e-03</internalNodes>
          <leafValues>
            8.1477276980876923e-02 -8.6035418510437012e-01</leafValues></_>
        <_>
          <internalNodes>
            0 -1 127 -4.1457661427557468e-03</internalNodes>
          <leafValues>
            4.1757303476333618e-01 -1.5152968466281891e-01</leafValues></_>
        <_>
          <internalNodes>
            0 -1 132 4.2874144855886698e-04</internalNodes>
          <leafValues>
            1.1894049495458603e-01 -6.7308354377746582e-01</leafValues></_>
        <_>
          <internalNodes>
            0 -1 143 -8.6968729738146067e-04</internalNodes>
          <leafValues>
            4.3151783943176270e-01 -1.5970952808856964e-01</leafValues></_>
        <_>
          <internalNodes>
            0 -1 164 2.1156985894776881e-05</internalNodes>
          <leafValues>
            1.7475992441177368e-01 -3.1396031379699707e-01</leafValues></_>
        <_>
          <internalNodes>
            0 -1 26 8.7232198566198349e-03</internalNodes>
          <leafValues>
            1.1173591762781143e-01 -5.8188611268997192e-01</leafValues></_>
        <_>
          <internalNodes>
            0 -1 40 -1.4037715271115303e-02</internalNodes>
          <leafValues>
            3.3371341228485107e-01 -2.0586714148521423e-01</leafValues></_>
        <_>
          <internalNodes>
            0 -1 84 -1.6257502138614655e-02</internalNodes>
          <leafValues>
            6.9584292173385620e-01 -9.6195787191390991e-02</leafValues></_>
        <_>
          <internalNodes>
            0 -1 63 -1.8316514790058136e-02</internalNodes>
          <leafValues>
            6.3093382120132446e-01 -1.0126923769712448e-01</leafValues></_>
        <_>
          <internalNodes>
            0 -1 7 1.5742686809971929e-04</internalNodes>
          <leafValues>
            1.8404681980609894e-01 -4.0579852461814880e-01</leafValues></_>
        <_>
          <internalNodes>
            0 -1 33 -1.2866984121501446e-02</internalNodes>
          <leafValues>
            4.1680616140365601e-01 -1.5999971330165863e-01</leafValues></_></weakClassifiers></_>
    <!-- stage 8 -->
    <_>
      <maxWeakCount>16</maxWeakCount>
      <stageThreshold>-1.4722443819046021e+00</stageThreshold>
      <weakClassifiers>
        <_>
          <internalNodes>
            0 -1 75 -3.1433306634426117e-02</internalNodes>
          <leafValues>
            6.0000002384185791e-01 -7.6169461011886597e-01</leafValues></_>
        <_>
          <internalNodes>
            0 -1 58 -4.5499168336391449e-03</internalNodes>
          <leafValues>
            2.6511225104331970e-01 -3.3450660109519958e-01</leafValues></_>
        <_>
          <internalNodes>
            0 -1 185 -2.2296183742582798e-03</internalNodes>
          <leafValues>
            -6.9135165214538574e-01 8.0361738801002502e-02</leafValues></_>
        <_>
          <internalNodes>
            0 -1 105 -4.1483705863356590e-03</internalNodes>
          <leafValues>
            5.6213217973709106e-01 -8.0090656876564026e-02</leafValues></_>
        <_>
          <internalNodes>
            0 -1 163 2.6924265548586845e-03</internalNodes>
          <leafValues>
            -1.2042224407196045e-01 4.3673822283744812e-01</leafValues></_>
        <_>
          <internalNodes>
            0 -1 153 2.9968927265144885e-04</internalNodes>
          <leafValues>
            -1.5454855561256409e-01 3.6701941490173340e-01</leafValues></_>
        <_>
          <internalNodes>
            0 -1 150 1.0383769869804382e-02</internalNodes>
          <leafValues>
            -1.8231482803821564e-01 3.1343930959701538e-01</leafValues></_>
        <_>
          <internalNodes>
            0 -1 72 -1.2589187463163398e-05</internalNodes>
          <leafValues>
            2.0391631126403809e-01 -3.0332705378532410e-01</leafValues></_>
        <_>
          <internalNodes>
            0 -1 30 1.0335205297451466e-04</internalNodes>
          <leafValues>
            1.7873285710811615e-01 -3.4852257370948792e-01</leafValues></_>
        <_>
          <internalNodes>
            0 -1 37 -1.0459798388183117e-02</internalNodes>
          <leafValues>
            5.7531476020812988e-01 -9.3252137303352356e-02</leafValues></_>
        <_>
          <internalNodes>
            0 -1 66 -1.2291671737330034e-05</internalNodes>
          <leafValues>
            2.3553486168384552e-01 -2.5816568732261658e-01</leafValues></_>
        <_>
          <internalNodes>
            0 -1 24 5.1831384189426899e-04</internalNodes>
          <leafValues>
            1.7740459740161896e-01 -3.7445333600044250e-01</leafValues></_>
        <_>
          <internalNodes>
            0 -1 74 9.6449360717087984e-04</internalNodes>
          <leafValues>
            -1.5382044017314911e-01 4.1856077313423157e-01</leafValues></_>
        <_>
          <internalNodes>
            0 -1 123 6.1743706464767456e-02</internalNodes>
          <leafValues>
            -1.3245515525341034e-01 4.6089488267898560e-01</leafValues></_>
        <_>
          <internalNodes>
            0 -1 57 1.0597595572471619e-01</internalNodes>
          <leafValues>
            -1.4707380533218384e-01 5.4080492258071899e-01</leafValues></_>
        <_>
          <internalNodes>
            0 -1 99 -3.1630619196221232e-04</internalNodes>
          <leafValues>
            4.3831732869148254e-01 -1.5786243975162506e-01</leafValues></_></weakClassifiers></_>
    <!-- stage 9 -->
    <_>
      <maxWeakCount>14</maxWeakCount>
      <stageThreshold>-1.5368168354034424e+00</stageThreshold>
      <weakClassifiers>
        <_>
          <internalNodes>
            0 -1 111 -1.2326426804065704e-02</internalNodes>
          <leafValues>
            7.5000000000000000e-01 -7.6035243272781372e-01</leafValues></_>
        <_>
          <internalNodes>
            0 -1 171 4.5063132420182228e-03</internalNodes>
          <leafValues>
            -3.0389401316642761e-01 3.6454907059669495e-01</leafValues></_>
        <_>
          <internalNodes>
            0 -1 169 4.5344064710661769e-04</internalNodes>
          <leafValues>
            7.0907801389694214e-02 -6.7603355646133423e-01</leafValues></_>
        <_>
          <internalNodes>
            0 -1 19 -2.0410157958394848e-05</internalNodes>
          <leafValues>
            -2.2652079164981842e-01 2.4202059209346771e-01</leafValues></_>
        <_>
          <internalNodes>
            0 -1 149 -4.1223756852559745e-04</internalNodes>
          <leafValues>
            -5.9855520725250244e-01 9.1927021741867065e-02</leafValues></_>
        <_>
          <internalNodes>
            0 -1 85 6.0337060131132603e-04</internalNodes>
          <leafValues>
            -2.3050047457218170e-01 2.8760930895805359e-01</leafValues></_>
        <_>
          <internalNodes>
            0 -1 144 1.7076046788133681e-05</internalNodes>
          <leafValues>
            -2.3905029892921448e-01 2.3089525103569031e-01</leafValues></_>
        <_>
          <internalNodes>
            0 -1 179 -1.8915530745289288e-05</internalNodes>
          <leafValues>
            -3.2528212666511536e-01 2.0439787209033966e-01</leafValues></_>
        <_>
          <internalNodes>
            0 -1 172 4.5542116276919842e-04</internalNodes>
          <leafValues>
            6.4779639244079590e-02 -8.0287390947341919e-01</leafValues></_>
        <_>
          <internalNodes>
            0 -1 147 1.3995520770549774e-02</internalNodes>
          <leafValues>
            -1.5291856229305267e-01 4.5144703984260559e-01</leafValues></_>
        <_>
          <internalNodes>
            0 -1 44 1.1469771852716804e-03</internalNodes>
          <leafValues>
            -1.0835053771734238e-01 4.9495825171470642e-01</leafValues></_>
        <_>
          <internalNodes>
            0 -1 97 -2.5896916631609201e-03</internalNodes>
          <leafValues>
            4.2629402875900269e-01 -1.4247117936611176e-01</leafValues></_>
        <_>
          <internalNodes>
            0 -1 142 -7.8405179083347321e-03</internalNodes>
          <leafValues>
            3.0197936296463013e-01 -2.2262470424175262e-01</leafValues></_>
        <_>
          <internalNodes>
            0 -1 155 -2.1851097699254751e-03</internalNodes>
          <leafValues>
            3.2930967211723328e-01 -1.8545499444007874e-01</leafValues></_></weakClassifiers></_>
    <!-- stage 10 -->
    <_>
      <maxWeakCount>12</maxWeakCount>
      <stageThreshold>-1.3607720136642456e+00</stageThreshold>
      <weakClassifiers>
        <_>
          <internalNodes>
            0 -1 15 2.3331969976425171e-02</internalNodes>
          <leafValues>
            -7.5901496410369873e-01 1.</leafValues></_>
        <_>
          <internalNodes>
            0 -1 180 5.4360942158382386e-05</internalNodes>
          <leafValues>
            -5.7218093425035477e-02 -5.6907218694686890e-01</leafValues></_>
        <_>
          <internalNodes>
            0 -1 184 -2.4338243529200554e-03</internalNodes>
          <leafValues>
            -4.5125162601470947e-01 1.1593775451183319e-01</leafValues></_>
        <_>
          <internalNodes>
            0 -1 16 -2.2159912623465061e-03</internalNodes>
          <leafValues>
            2.6898390054702759e-01 -2.1296522021293640e-01</leafValues></_>
        <_>
          <internalNodes>
            0 -1 29 -6.2324181199073792e-03</internalNodes>
          <leafValues>
            2.8185343742370605e-01 -2.2852262854576111e-01</leafValues></_>
        <_>
          <internalNodes>
            0 -1 101 -6.5665142610669136e-03</internalNodes>
          <leafValues>
            -1. 5.2449584007263184e-02</leafValues></_>
        <_>
          <internalNodes>
            0 -1 69 -1.3152845203876495e-03</internalNodes>
          <leafValues>
            3.4303888678550720e-01 -1.7431291937828064e-01</leafValues></_>
        <_>
          <internalNodes>
            0 -1 17 -8.7251234799623489e-04</internalNodes>
          <leafValues>
            -7.3252439498901367e-01 8.6898595094680786e-02</leafValues></_>
        <_>
          <internalNodes>
            0 -1 103 1.2010510545223951e-04</internalNodes>
          <leafValues>
            1.5846087038516998e-01 -3.3289143443107605e-01</leafValues></_>
        <_>
          <internalNodes>
            0 -1 23 1.0915619786828756e-03</internalNodes>
          <leafValues>
            8.3985321223735809e-02 -6.4613741636276245e-01</leafValues></_>
        <_>
          <internalNodes>
            0 -1 38 -1.1594833340495825e-03</internalNodes>
          <leafValues>
            3.5926654934883118e-01 -1.7874206602573395e-01</leafValues></_>
        <_>
          <internalNodes>
            0 -1 62 -1.0780040174722672e-03</internalNodes>
          <leafValues>
            3.7639135122299194e-01 -1.6798570752143860e-01</leafValues></_></weakClassifiers></_>
    <!-- stage 11 -->
    <_>
      <maxWeakCount>16</maxWeakCount>
      <stageThreshold>-1.3402330875396729e+00</stageThreshold>
      <weakClassifiers>
        <_>
          <internalNodes>
            0 -1 156 1.1222780682146549e-02</internalNodes>
          <leafValues>
            -7.7416437864303589e-01 -3.4423418976414766e-17</leafValues></_>
        <_>
          <internalNodes>
            0 -1 120 7.4875005520880222e-04</internalNodes>
          <leafValues>
            -3.8482892513275146e-01 8.6573533713817596e-02</leafValues></_>
        <_>
          <internalNodes>
            0 -1 159 -7.6258846092969179e-05</internalNodes>
          <leafValues>
            1.8977130949497223e-01 -2.6016169786453247e-01</leafValues></_>
        <_>
          <internalNodes>
            0 -1 102 5.3645609878003597e-03</internalNodes>
          <leafValues>
            8.7379477918148041e-02 -5.7043594121932983e-01</leafValues></_>
        <_>
          <internalNodes>
            0 -1 89 1.6848710365593433e-03</internalNodes>
          <leafValues>
            -1.4697358012199402e-01 3.7975531816482544e-01</leafValues></_>
        <_>
          <internalNodes>
            0 -1 43 1.6362337919417769e-04</internalNodes>
          <leafValues>
            7.6161131262779236e-02 -5.5324602127075195e-01</leafValues></_>
        <_>
          <internalNodes>
            0 -1 148 -2.7557145804166794e-02</internalNodes>
          <leafValues>
            2.2426068782806396e-01 -2.5146070122718811e-01</leafValues></_>
        <_>
          <internalNodes>
            0 -1 137 -6.2702014110982418e-04</internalNodes>
          <leafValues>
            3.1364730000495911e-01 -2.0991086959838867e-01</leafValues></_>
        <_>
          <internalNodes>
            0 -1 135 -5.1476927474141121e-03</internalNodes>
          <leafValues>
            -9.4500547647476196e-01 7.1664147078990936e-02</leafValues></_>
        <_>
          <internalNodes>
            0 -1 117 -3.4418568247929215e-04</internalNodes>
          <leafValues>
            2.8102749586105347e-01 -2.1177342534065247e-01</leafValues></_>
        <_>
          <internalNodes>
            0 -1 52 -3.0011264607310295e-03</internalNodes>
          <leafValues>
            4.3225565552711487e-01 -1.2204562872648239e-01</leafValues></_>
        <_>
          <internalNodes>
            0 -1 10 1.1826113041024655e-04</internalNodes>
          <leafValues>
            1.3741956651210785e-01 -4.1306996345520020e-01</leafValues></_>
        <_>
          <internalNodes>
            0 -1 8 5.2717388607561588e-03</internalNodes>
          <leafValues>
            -2.1860377490520477e-01 3.3146655559539795e-01</leafValues></_>
        <_>
          <internalNodes>
            0 -1 3 3.3649895340204239e-04</internalNodes>
          <leafValues>
            -1.9731275737285614e-01 2.7452972531318665e-01</leafValues></_>
        <_>
          <internalNodes>
            0 -1 174 -3.2245295587927103e-03</internalNodes>
          <leafValues>
            -8.8448655605316162e-01 6.0821462422609329e-02</leafValues></_>
        <_>
          <internalNodes>
            0 -1 116 -6.2510021962225437e-04</internalNodes>
          <leafValues>
            1.9139844179153442e-01 -2.6799878478050232e-01</leafValues></_></weakClassifiers></_>
    <!-- stage 12 -->
    <_>
      <maxWeakCount>18</maxWeakCount>
      <stageThreshold>-1.5183168649673462e+00</stageThreshold>
      <weakClassifiers>
        <_>
          <internalNodes>
            0 -1 138 -3.4608870744705200e-02</internalNodes>
          <leafValues>
            5.5555558204650879e-01 -7.6014107465744019e-01</leafValues></_>
        <_>
          <internalNodes>
            0 -1 34 -1.0460672900080681e-02</internalNodes>
          <leafValues>
            -3.3990472555160522e-02 -4.7200354933738708e-01</leafValues></_>
        <_>
          <internalNodes>
            0 -1 168 -6.3305674120783806e-03</internalNodes>
          <leafValues>
            -4.6301415562629700e-01 9.8374798893928528e-02</leafValues></_>
        <_>
          <internalNodes>
            0 -1 60 -5.1167093217372894e-02</internalNodes>
          <leafValues>
            3.2724112272262573e-01 -1.7034113407135010e-01</leafValues></_>
        <_>
          <internalNodes>
            0 -1 100 6.2779360450804234e-04</internalNodes>
          <leafValues>
            -2.1912895143032074e-01 2.3703740537166595e-01</leafValues></_>
        <_>
          <internalNodes>
            0 -1 160 -5.3754618420498446e-05</internalNodes>
          <leafValues>
            -3.4076657891273499e-01 1.4248481392860413e-01</leafValues></_>
        <_>
          <internalNodes>
            0 -1 112 1.1982151590927970e-05</internalNodes>
          <leafValues>
            -1.9671304523944855e-01 2.6857700943946838e-01</leafValues></_>
        <_>
          <internalNodes>
            0 -1 113 9.8157592583447695e-04</internalNodes>
          <leafValues>
            -1.4711099863052368e-01 3.6328744888305664e-01</leafValues></_>
        <_>
          <internalNodes>
            0 -1 157 1.6603633761405945e-02</internalNodes>
          <leafValues>
            -1.0604730993509293e-01 4.7058144211769104e-01</leafValues></_>
        <_>
          <internalNodes>
            0 -1 18 -1.0659515392035246e-03</internalNodes>
          <leafValues>
            2.9009073972702026e-01 -1.6607654094696045e-01</leafValues></_>
        <_>
          <internalNodes>
            0 -1 20 7.8010640572756529e-04</internalNodes>
          <leafValues>
            9.0991273522377014e-02 -6.1448585987091064e-01</leafValues></_>
        <_>
          <internalNodes>
            0 -1 65 -1.2188807595521212e-03</internalNodes>
          <leafValues>
            4.7664031386375427e-01 -1.2807336449623108e-01</leafValues></_>
        <_>
          <internalNodes>
            0 -1 125 1.7546234885230660e-03</internalNodes>
          <leafValues>
            8.2450404763221741e-02 -7.7970558404922485e-01</leafValues></_>
        <_>
          <internalNodes>
            0 -1 55 7.5717054307460785e-02</internalNodes>
          <leafValues>
            4.5502688735723495e-02 -9.2029124498367310e-01</leafValues></_>
        <_>
          <internalNodes>
            0 -1 134 4.1155051440000534e-03</internalNodes>
          <leafValues>
            7.5771473348140717e-02 -5.4940295219421387e-01</leafValues></_>
        <_>
          <internalNodes>
            0 -1 128 2.0077191293239594e-03</internalNodes>
          <leafValues>
            -2.4511498212814331e-01 2.2208710014820099e-01</leafValues></_>
        <_>
          <internalNodes>
            0 -1 82 -2.3444088583346456e-05</internalNodes>
          <leafValues>
            2.6871562004089355e-01 -2.0720142126083374e-01</leafValues></_>
        <_>
          <internalNodes>
            0 -1 71 -1.3571858871728182e-03</internalNodes>
          <leafValues>
            5.3239059448242188e-01 -1.0303521156311035e-01</leafValues></_></weakClassifiers></_>
    <!-- stage 13 -->
    <_>
      <maxWeakCount>15</maxWeakCount>
      <stageThreshold>-1.5875675678253174e+00</stageThreshold>
      <weakClassifiers>
        <_>
          <internalNodes>
            0 -1 146 -1.8054327229037881e-03</internalNodes>
          <leafValues>
            5.0000000000000000e-01 -7.6304155588150024e-01</leafValues></_>
        <_>
          <internalNodes>
            0 -1 2 1.7915144562721252e-03</internalNodes>
          <leafValues>
            -1.4641200006008148e-01 -7.2369891405105591e-01</leafValues></_>
        <_>
          <internalNodes>
            0 -1 0 -1.6262594726867974e-05</internalNodes>
          <leafValues>
            -3.0758816003799438e-01 1.3477861881256104e-01</leafValues></_>
        <_>
          <internalNodes>
            0 -1 54 1.6018750146031380e-02</internalNodes>
          <leafValues>
            -1.3491967320442200e-01 3.4838297963142395e-01</leafValues></_>
        <_>
          <internalNodes>
            0 -1 45 9.2016981216147542e-04</internalNodes>
          <leafValues>
            -1.4296557009220123e-01 3.1911692023277283e-01</leafValues></_>
        <_>
          <internalNodes>
            0 -1 165 -1.3707953039556742e-03</internalNodes>
          <leafValues>
            2.5893026590347290e-01 -2.1838247776031494e-01</leafValues></_>
        <_>
          <internalNodes>
            0 -1 6 1.6766842454671860e-03</internalNodes>
          <leafValues>
            1.5250000357627869e-01 -3.2803446054458618e-01</leafValues></_>
        <_>
          <internalNodes>
            0 -1 181 2.8940895572304726e-04</internalNodes>
          <leafValues>
            1.7271934449672699e-01 -3.2757577300071716e-01</leafValues></_>
        <_>
          <internalNodes>
            0 -1 64 -1.8846613820642233e-03</internalNodes>
          <leafValues>
            3.9149892330169678e-01 -1.4042949676513672e-01</leafValues></_>
        <_>
          <internalNodes>
            0 -1 80 -1.0388623923063278e-02</internalNodes>
          <leafValues>
            4.1515225172042847e-01 -1.1344572156667709e-01</leafValues></_>
        <_>
          <internalNodes>
            0 -1 108 -5.1654959097504616e-03</internalNodes>
          <leafValues>
            -8.0886018276214600e-01 6.2777392566204071e-02</leafValues></_>
        <_>
          <internalNodes>
            0 -1 28 -7.7840517042204738e-04</internalNodes>
          <leafValues>
            2.0479618012905121e-01 -2.7394738793373108e-01</leafValues></_>
        <_>
          <internalNodes>
            0 -1 42 8.4921706002205610e-04</internalNodes>
          <leafValues>
            -2.0237495005130768e-01 2.6634415984153748e-01</leafValues></_>
        <_>
          <internalNodes>
            0 -1 1 1.1923892889171839e-03</internalNodes>
          <leafValues>
            6.2857761979103088e-02 -8.3803582191467285e-01</leafValues></_>
        <_>
          <internalNodes>
            0 -1 98 5.7849802076816559e-02</internalNodes>
          <leafValues>
            -1.2029131501913071e-01 5.3493106365203857e-01</leafValues></_></weakClassifiers></_>
    <!-- stage 14 -->
    <_>
      <maxWeakCount>19</maxWeakCount>
      <stageThreshold>-1.6196933984756470e+00</stageThreshold>
      <weakClassifiers>
        <_>
          <internalNodes>
            0 -1 145 -2.2720430046319962e-02</internalNodes>
          <leafValues>
            -2.4242424964904785e-01 -7.8087282180786133e-01</leafValues></_>
        <_>
          <internalNodes>
            0 -1 81 4.4671742944046855e-04</internalNodes>
          <leafValues>
            -1.6344805061817169e-01 -7.8409385681152344e-01</leafValues></_>
        <_>
          <internalNodes>
            0 -1 51 8.2401707768440247e-02</internalNodes>
          <leafValues>
            7.2903238236904144e-02 -1.</leafValues></_>
        <_>
          <internalNodes>
            0 -1 170 -2.2625394165515900e-02</internalNodes>
          <leafValues>
            -1. -6.2077105976641178e-03</leafValues></_>
        <_>
          <internalNodes>
            0 -1 183 1.0166030842810869e-03</internalNodes>
          <leafValues>
            7.3841951787471771e-02 -6.1282896995544434e-01</leafValues></_>
        <_>
          <internalNodes>
            0 -1 49 5.3933041635900736e-04</internalNodes>
          <leafValues>
            -2.2110460698604584e-01 2.1876478195190430e-01</leafValues></_>
        <_>
          <internalNodes>
            0 -1 139 -5.2188837435096502e-04</internalNodes>
          <leafValues>
            2.9902678728103638e-01 -1.5791593492031097e-01</leafValues></_>
        <_>
          <internalNodes>
            0 -1 177 -1.6216617950703949e-05</internalNodes>
          <leafValues>
            2.0998317003250122e-01 -2.2164511680603027e-01</leafValues></_>
        <_>
          <internalNodes>
            0 -1 93 -4.9535708967596292e-04</internalNodes>
          <leafValues>
            3.8229325413703918e-01 -1.2759508192539215e-01</leafValues></_>
        <_>
          <internalNodes>
            0 -1 9 -2.3323462810367346e-03</internalNodes>
          <leafValues>
            4.5492199063301086e-01 -1.1507876217365265e-01</leafValues></_>
        <_>
          <internalNodes>
            0 -1 109 -1.5495788305997849e-02</internalNodes>
          <leafValues>
            -4.6758082509040833e-01 1.1190507560968399e-01</leafValues></_>
        <_>
          <internalNodes>
            0 -1 94 7.8254548134282231e-04</internalNodes>
          <leafValues>
            -1.5951515734195709e-01 3.4117549657821655e-01</leafValues></_>
        <_>
          <internalNodes>
            0 -1 173 -4.7215094673447311e-04</internalNodes>
          <leafValues>
            -3.7277564406394958e-01 1.4214643836021423e-01</leafValues></_>
        <_>
          <internalNodes>
            0 -1 96 -3.4273788332939148e-02</internalNodes>
          <leafValues>
            3.6813354492187500e-01 -1.4969588816165924e-01</leafValues></_>
        <_>
          <internalNodes>
            0 -1 152 -1.2999227328691632e-04</internalNodes>
          <leafValues>
            2.1408423781394958e-01 -2.5523883104324341e-01</leafValues></_>
        <_>
          <internalNodes>
            0 -1 78 -3.6066300235688686e-03</internalNodes>
          <leafValues>
            6.3711255788803101e-01 -8.2217156887054443e-02</leafValues></_>
        <_>
          <internalNodes>
            0 -1 25 -6.9248315412551165e-04</internalNodes>
          <leafValues>
            -5.0996249914169312e-01 1.1313948035240173e-01</leafValues></_>
        <_>
          <internalNodes>
            0 -1 83 1.0571979219093919e-03</internalNodes>
          <leafValues>
            -1.2062277644872665e-01 4.8394632339477539e-01</leafValues></_>
        <_>
          <internalNodes>
            0 -1 21 6.6195300314575434e-04</internalNodes>
          <leafValues>
            1.4967891573905945e-01 -4.2019891738891602e-01</leafValues></_></weakClassifiers></_></stages>
  <features>
    <_>
      <rects>
        <_>
          0 0 1 2 -1.</_>
        <_>
          0 1 1 1 2.</_></rects>
      <tilted>0</tilted></_>
    <_>
      <rects>
        <_>
          0 0 1 4 -1.</_>
        <_>
          0 2 1 2 2.</_></rects>
      <tilted>0</tilted></_>
    <_>
      <rects>
        <_>
          0 1 3 4 -1.</_>
        <_>
          0 3 3 2 2.</_></rects>
      <tilted>0</tilted></_>
    <_>
      <rects>
        <_>
          0 1 6 6 -1.</_>
        <_>
          0 4 6 3 2.</_></rects>
      <tilted>0</tilted></_>
    <_>
      <rects>
        <_>
          0 2 2 2 -1.</_>
        <_>
          0 3 2 1 2.</_></rects>
      <tilted>0</tilted></_>
    <_>
      <rects>
        <_>
          0 7 1 8 -1.</_>
        <_>
          0 11 1 4 2.</_></rects>
      <tilted>0</tilted></_>
    <_>
      <rects>
        <_>
          0 8 12 8 -1.</_>
        <_>
          0 8 6 4 2.</_>
        <_>
          6 12 6 4 2.</_></rects>
      <tilted>0</tilted></_>
    <_>
      <rects>
        <_>
          0 14 4 2 -1.</_>
        <_>
          0 15 4 1 2.</_></rects>
      <tilted>0</tilted></_>
    <_>
      <rects>
        <_>
          0 14 17 6 -1.</_>
        <_>
          0 16 17 2 3.</_></rects>
      <tilted>0</tilted></_>
    <_>
      <rects>
        <_>
          0 15 2 11 -1.</_>
        <_>
          1 15 1 11 2.</_></rects>
      <tilted>0</tilted></_>
    <_>
      <rects>
        <_>
          0 16 1 3 -1.</_>
        <_>
          0 17 1 1 3.</_></rects>
      <tilted>0</tilted></_>
    <_>
      <rects>
        <_>
          0 19 8 8 -1.</_>
        <_>
          4 19 4 8 2.</_></rects>
      <tilted>0</tilted></_>
    <_>
      <rects>
        <_>
          0 24 1 3 -1.</_>
        <_>
          0 25 1 1 3.</_></rects>
      <tilted>0</tilted></_>
    <_>
      <rects>
        <_>
          0 24 2 3 -1.</_>
        <_>
          0 25 2 1 3.</_></rects>
      <tilted>0</tilted></_>
    <_>
      <rects>
        <_>
          0 29 2 2 -1.</_>
        <_>
          0 29 1 1 2.</_>
        <_>
          1 30 1 1 2.</_></rects>
      <tilted>0</tilted></_>
    <_>
      <rects>
        <_>
          0 29 17 2 -1.</_>
        <_>
          0 30 17 1 2.</_></rects>
      <tilted>0</tilted></_>
    <_>
      <rects>
        <_>
          0 30 22 1 -1.</_>
        <_>
          11 30 11 1 2.</_></rects>
      <tilted>0</tilted></_>
    <_>
      <rects>
        <_>
          1 1 4 1 -1.</_>
        <_>
          3 1 2 1 2.</_></rects>
      <tilted>0</tilted></_>
    <_>
      <rects>
        <_>
          1 18 4 6 -1.</_>
        <_>
          1 18 2 3 2.</_>
        <_>
          3 21 2 3 2.</_></rects>
      <tilted>0</tilted></_>
    <_>
      <rects>
        <_>
          1 19 2 11 -1.</_>
        <_>
          2 19 1 11 2.</_></rects>
      <tilted>0</tilted></_>
    <_>
      <rects>
        <_>
          1 26 2 3 -1.</_>
        <_>
          1 27 2 1 3.</_></rects>
      <tilted>0</tilted></_>
    <_>
      <rects>
        <_>
          2 0 6 2 -1.</_>
        <_>
          4 0 2 2 3.</_></rects>
      <tilted>0</tilted></_>
    <_>
      <rects>
        <_>
          2 1 4 1 -1.</_>
        <_>
          4 1 2 1 2.</_></rects>
      <tilted>0</tilted></_>
    <_>
      <rects>
        <_>
          2 2 6 2 -1.</_>
        <_>
          2 2 3 1 2.</_>
        <_>
          5 3 3 1 2.</_></rects>
      <tilted>0</tilted></_>
    <_>
      <rects>
        <_>
          2 4 3 6 -1.</_>
        <_>
          2 6 3 2 3.</_></rects>
      <tilted>0</tilted></_>
    <_>
      <rects>
        <_>
          2 6 4 3 -1.</_>
        <_>
          2 7 4 1 3.</_></rects>
      <tilted>0</tilted></_>
    <_>
      <rects>
        <_>
          2 6 10 6 -1.</_>
        <_>
          2 9 10 3 2.</_></rects>
      <tilted>0</tilted></_>
    <_>
      <rects>
        <_>
          2 12 21 19 -1.</_>
        <_>
          9 12 7 19 3.</_></rects>
      <tilted>0</tilted></_>
    <_>
      <rects>
        <_>
          2 15 22 6 -1.</_>
        <_>
          2 17 22 2 3.</_></rects>
      <tilted>0</tilted></_>
    <_>
      <rects>
        <_>
          2 26 13 6 -1.</_>
        <_>
          2 29 13 3 2.</_></rects>
      <tilted>0</tilted></_>
    <_>
      <rects>
        <_>
          3 1 3 6 -1.</_>
        <_>
          4 1 1 6 3.</_></rects>
      <tilted>0</tilted></_>
    <_>
      <rects>
        <_>
          3 1 17 6 -1.</_>
        <_>
          3 3 17 2 3.</_></rects>
      <tilted>0</tilted></_>
    <_>
      <rects>
        <_>
          3 7 27 8 -1.</_>
        <_>
          12 7 9 8 3.</_></rects>
      <tilted>0</tilted></_>
    <_>
      <rects>
        <_>
          3 25 26 6 -1.</_>
        <_>
          3 27 26 2 3.</_></rects>
      <tilted>0</tilted></_>
    <_>
      <rects>
        <_>
          4 0 27 8 -1.</_>
        <_>
          4 4 27 4 2.</_></rects>
      <tilted>0</tilted></_>
    <_>
      <rects>
        <_>
          4 1 17 6 -1.</_>
        <_>
          4 4 17 3 2.</_></rects>
      <tilted>0</tilted></_>
    <_>
      <rects>
        <_>
          4 4 24 12 -1.</_>
        <_>
          12 4 8 12 3.</_></rects>
      <tilted>0</tilted></_>
    <_>
      <rects>
        <_>
          4 13 6 8 -1.</_>
        <_>
          4 13 3 4 2.</_>
        <_>
          7 17 3 4 2.</_></rects>
      <tilted>0</tilted></_>
    <_>
      <rects>
        <_>
          4 17 7 3 -1.</_>
        <_>
          4 18 7 1 3.</_></rects>
      <tilted>0</tilted></_>
    <_>
      <rects>
        <_>
          4 29 27 3 -1.</_>
        <_>
          4 30 27 1 3.</_></rects>
      <tilted>0</tilted></_>
    <_>
      <rects>
        <_>
          5 0 12 12 -1.</_>
        <_>
          5 0 6 6 2.</_>
        <_>
          11 6 6 6 2.</_></rects>
      <tilted>0</tilted></_>
    <_>
      <rects>
        <_>
          5 6 6 26 -1.</_>
        <_>
          7 6 2 26 3.</_></rects>
      <tilted>0</tilted></_>
    <_>
      <rects>
        <_>
          5 15 4 6 -1.</_>
        <_>
          5 17 4 2 3.</_></rects>
      <tilted>0</tilted></_>
    <_>
      <rects>
        <_>
          5 24 2 2 -1.</_>
        <_>
          5 24 1 1 2.</_>
        <_>
          6 25 1 1 2.</_></rects>
      <tilted>0</tilted></_>
    <_>
      <rects>
        <_>
          5 24 3 2 -1.</_>
        <_>
          6 24 1 2 3.</_></rects>
      <tilted>0</tilted></_>
    <_>
      <rects>
        <_>
          5 27 9 3 -1.</_>
        <_>
          5 28 9 1 3.</_></rects>
      <tilted>0</tilted></_>
    <_>
      <rects>
        <_>
          6 1 2 3 -1.</_>
        <_>
          6 2 2 1 3.</_></rects>
      <tilted>0</tilted></_>
    <_>
      <rects>
        <_>
          6 7 12 8 -1.</_>
        <_>
          10 7 4 8 3.</_></rects>
      <tilted>0</tilted></_>
    <_>
      <rects>
        <_>
          6 8 16 3 -1.</_>
        <_>
          6 9 16 1 3.</_></rects>
      <tilted>0</tilted></_>
    <_>
      <rects>
        <_>
          6 13 24 2 -1.</_>
        <_>
          6 14 24 1 2.</_></rects>
      <tilted>0</tilted></_>
    <_>
      <rects>
        <_>
          6 24 3 5 -1.</_>
        <_>
          7 24 1 5 3.</_></rects>
      <tilted>0</tilted></_>
    <_>
      <rects>
        <_>
          7 6 18 16 -1.</_>
        <_>
          7 6 9 8 2.</_>
        <_>
          16 14 9 8 2.</_></rects>
      <tilted>0</tilted></_>
    <_>
      <rects>
        <_>
          7 8 3 8 -1.</_>
        <_>
          8 8 1 8 3.</_></rects>
      <tilted>0</tilted></_>
    <_>
      <rects>
        <_>
          7 9 6 14 -1.</_>
        <_>
          9 9 2 14 3.</_></rects>
      <tilted>0</tilted></_>
    <_>
      <rects>
        <_>
          7 12 8 14 -1.</_>
        <_>
          7 12 4 7 2.</_>
        <_>
          11 19 4 7 2.</_></rects>
      <tilted>0</tilted></_>
    <_>
      <rects>
        <_>
          7 18 18 12 -1.</_>
        <_>
          7 22 18 4 3.</_></rects>
      <tilted>0</tilted></_>
    <_>
      <rects>
        <_>
          8 1 21 6 -1.</_>
        <_>
          8 3 21 2 3.</_></rects>
      <tilted>0</tilted></_>
    <_>
      <rects>
        <_>
          8 2 18 27 -1.</_>
        <_>
          14 2 6 27 3.</_></rects>
      <tilted>0</tilted></_>
    <_>
      <rects>
        <_>
          8 2 18 2 -1.</_>
        <_>
          8 3 18 1 2.</_></rects>
      <tilted>0</tilted></_>
    <_>
      <rects>
        <_>
          8 10 22 6 -1.</_>
        <_>
          8 12 22 2 3.</_></rects>
      <tilted>0</tilted></_>
    <_>
      <rects>
        <_>
          8 18 24 14 -1.</_>
        <_>
          8 25 24 7 2.</_></rects>
      <tilted>0</tilted></_>
    <_>
      <rects>
        <_>
          9 0 5 32 -1.</_>
        <_>
          9 16 5 16 2.</_></rects>
      <tilted>0</tilted></_>
    <_>
      <rects>
        <_>
          9 0 8 3 -1.</_>
        <_>
          9 1 8 1 3.</_></rects>
      <tilted>0</tilted></_>
    <_>
      <rects>
        <_>
          9 5 12 6 -1.</_>
        <_>
          9 5 6 3 2.</_>
        <_>
          15 8 6 3 2.</_></rects>
      <tilted>0</tilted></_>
    <_>
      <rects>
        <_>
          9 10 10 2 -1.</_>
        <_>
          9 10 5 1 2.</_>
        <_>
          14 11 5 1 2.</_></rects>
      <tilted>0</tilted></_>
    <_>
      <rects>
        <_>
          9 24 2 4 -1.</_>
        <_>
          9 24 1 2 2.</_>
        <_>
          10 26 1 2 2.</_></rects>
      <tilted>0</tilted></_>
    <_>
      <rects>
        <_>
          9 27 1 2 -1.</_>
        <_>
          9 28 1 1 2.</_></rects>
      <tilted>0</tilted></_>
    <_>
      <rects>
        <_>
          10 10 3 6 -1.</_>
        <_>
          11 10 1 6 3.</_></rects>
      <tilted>0</tilted></_>
    <_>
      <rects>
        <_>
          10 10 18 19 -1.</_>
        <_>
          16 10 6 19 3.</_></rects>
      <tilted>0</tilted></_>
    <_>
      <rects>
        <_>
          10 12 3 5 -1.</_>
        <_>
          11 12 1 5 3.</_></rects>
      <tilted>0</tilted></_>
    <_>
      <rects>
        <_>
          10 14 6 3 -1.</_>
        <_>
          12 14 2 3 3.</_></rects>
      <tilted>0</tilted></_>
    <_>
      <rects>
        <_>
          10 15 2 4 -1.</_>
        <_>
          10 15 1 2 2.</_>
        <_>
          11 17 1 2 2.</_></rects>
      <tilted>0</tilted></_>
    <_>
      <rects>
        <_>
          10 22 1 4 -1.</_>
        <_>
          10 24 1 2 2.</_></rects>
      <tilted>0</tilted></_>
    <_>
      <rects>
        <_>
          10 22 11 10 -1.</_>
        <_>
          10 27 11 5 2.</_></rects>
      <tilted>0</tilted></_>
    <_>
      <rects>
        <_>
          10 24 3 2 -1.</_>
        <_>
          11 24 1 2 3.</_></rects>
      <tilted>0</tilted></_>
    <_>
      <rects>
        <_>
          10 29 21 3 -1.</_>
        <_>
          10 30 21 1 3.</_></rects>
      <tilted>0</tilted></_>
    <_>
      <rects>
        <_>
          11 1 10 2 -1.</_>
        <_>
          11 1 5 1 2.</_>
        <_>
          16 2 5 1 2.</_></rects>
      <tilted>0</tilted></_>
    <_>
      <rects>
        <_>
          11 6 9 3 -1.</_>
        <_>
          11 7 9 1 3.</_></rects>
      <tilted>0</tilted></_>
    <_>
      <rects>
        <_>
          11 9 2 8 -1.</_>
        <_>
          11 9 1 4 2.</_>
        <_>
          12 13 1 4 2.</_></rects>
      <tilted>0</tilted></_>
    <_>
      <rects>
        <_>
          11 11 12 8 -1.</_>
        <_>
          15 11 4 8 3.</_></rects>
      <tilted>0</tilted></_>
    <_>
      <rects>
        <_>
          11 24 19 6 -1.</_>
        <_>
          11 26 19 2 3.</_></rects>
      <tilted>0</tilted></_>
    <_>
      <rects>
        <_>
          12 0 2 1 -1.</_>
        <_>
          13 0 1 1 2.</_></rects>
      <tilted>0</tilted></_>
    <_>
      <rects>
        <_>
          12 2 18 2 -1.</_>
        <_>
          12 2 9 1 2.</_>
        <_>
          21 3 9 1 2.</_></rects>
      <tilted>0</tilted></_>
    <_>
      <rects>
        <_>
          12 3 4 2 -1.</_>
        <_>
          12 3 2 1 2.</_>
        <_>
          14 4 2 1 2.</_></rects>
      <tilted>0</tilted></_>
    <_>
      <rects>
        <_>
          12 8 4 16 -1.</_>
        <_>
          12 8 2 8 2.</_>
        <_>
          14 16 2 8 2.</_></rects>
      <tilted>0</tilted></_>
    <_>
      <rects>
        <_>
          12 9 4 3 -1.</_>
        <_>
          12 10 4 1 3.</_></rects>
      <tilted>0</tilted></_>
    <_>
      <rects>
        <_>
          12 15 3 16 -1.</_>
        <_>
          13 15 1 16 3.</_></rects>
      <tilted>0</tilted></_>
    <_>
      <rects>
        <_>
          12 22 13 3 -1.</_>
        <_>
          12 23 13 1 3.</_></rects>
      <tilted>0</tilted></_>
    <_>
      <rects>
        <_>
          12 27 2 3 -1.</_>
        <_>
          12 28 2 1 3.</_></rects>
      <tilted>0</tilted></_>
    <_>
      <rects>
        <_>
          12 29 12 1 -1.</_>
        <_>
          18 29 6 1 2.</_></rects>
      <tilted>0</tilted></_>
    <_>
      <rects>
        <_>
          13 3 12 29 -1.</_>
        <_>
          17 3 4 29 3.</_></rects>
      <tilted>0</tilted></_>
    <_>
      <rects>
        <_>
          13 6 3 22 -1.</_>
        <_>
          14 6 1 22 3.</_></rects>
      <tilted>0</tilted></_>
    <_>
      <rects>
        <_>
          13 9 3 10 -1.</_>
        <_>
          14 9 1 10 3.</_></rects>
      <tilted>0</tilted></_>
    <_>
      <rects>
        <_>
          13 10 1 3 -1.</_>
        <_>
          13 11 1 1 3.</_></rects>
      <tilted>0</tilted></_>
    <_>
      <rects>
        <_>
          13 16 2 4 -1.</_>
        <_>
          13 16 1 2 2.</_>
        <_>
          14 18 1 2 2.</_></rects>
      <tilted>0</tilted></_>
    <_>
      <rects>
        <_>
          14 0 8 12 -1.</_>
        <_>
          14 6 8 6 2.</_></rects>
      <tilted>0</tilted></_>
    <_>
      <rects>
        <_>
          14 2 18 12 -1.</_>
        <_>
          14 6 18 4 3.</_></rects>
      <tilted>0</tilted></_>
    <_>
      <rects>
        <_>
          14 5 9 3 -1.</_>
        <_>
          14 6 9 1 3.</_></rects>
      <tilted>0</tilted></_>
    <_>
      <rects>
        <_>
          14 9 12 18 -1.</_>
        <_>
          14 9 6 9 2.</_>
        <_>
          20 18 6 9 2.</_></rects>
      <tilted>0</tilted></_>
    <_>
      <rects>
        <_>
          14 10 2 2 -1.</_>
        <_>
          14 10 1 1 2.</_>
        <_>
          15 11 1 1 2.</_></rects>
      <tilted>0</tilted></_>
    <_>
      <rects>
        <_>
          14 23 10 4 -1.</_>
        <_>
          14 25 10 2 2.</_></rects>
      <tilted>0</tilted></_>
    <_>
      <rects>
        <_>
          14 25 3 4 -1.</_>
        <_>
          14 27 3 2 2.</_></rects>
      <tilted>0</tilted></_>
    <_>
      <rects>
        <_>
          14 30 8 2 -1.</_>
        <_>
          18 30 4 2 2.</_></rects>
      <tilted>0</tilted></_>
    <_>
      <rects>
        <_>
          15 0 16 1 -1.</_>
        <_>
          23 0 8 1 2.</_></rects>
      <tilted>0</tilted></_>
    <_>
      <rects>
        <_>
          15 8 3 10 -1.</_>
        <_>
          16 8 1 10 3.</_></rects>
      <tilted>0</tilted></_>
    <_>
      <rects>
        <_>
          15 10 1 9 -1.</_>
        <_>
          15 13 1 3 3.</_></rects>
      <tilted>0</tilted></_>
    <_>
      <rects>
        <_>
          15 14 1 3 -1.</_>
        <_>
          15 15 1 1 3.</_></rects>
      <tilted>0</tilted></_>
    <_>
      <rects>
        <_>
          15 14 3 3 -1.</_>
        <_>
          16 14 1 3 3.</_></rects>
      <tilted>0</tilted></_>
    <_>
      <rects>
        <_>
          15 16 2 6 -1.</_>
        <_>
          15 18 2 2 3.</_></rects>
      <tilted>0</tilted></_>
    <_>
      <rects>
        <_>
          15 21 16 8 -1.</_>
        <_>
          15 21 8 4 2.</_>
        <_>
          23 25 8 4 2.</_></rects>
      <tilted>0</tilted></_>
    <_>
      <rects>
        <_>
          15 27 2 5 -1.</_>
        <_>
          16 27 1 5 2.</_></rects>
      <tilted>0</tilted></_>
    <_>
      <rects>
        <_>
          15 29 8 2 -1.</_>
        <_>
          15 30 8 1 2.</_></rects>
      <tilted>0</tilted></_>
    <_>
      <rects>
        <_>
          16 0 1 2 -1.</_>
        <_>
          16 1 1 1 2.</_></rects>
      <tilted>0</tilted></_>
    <_>
      <rects>
        <_>
          16 0 4 4 -1.</_>
        <_>
          16 0 2 2 2.</_>
        <_>
          18 2 2 2 2.</_></rects>
      <tilted>0</tilted></_>
    <_>
      <rects>
        <_>
          16 0 6 1 -1.</_>
        <_>
          19 0 3 1 2.</_></rects>
      <tilted>0</tilted></_>
    <_>
      <rects>
        <_>
          16 6 3 14 -1.</_>
        <_>
          17 6 1 14 3.</_></rects>
      <tilted>0</tilted></_>
    <_>
      <rects>
        <_>
          16 14 4 12 -1.</_>
        <_>
          16 18 4 4 3.</_></rects>
      <tilted>0</tilted></_>
    <_>
      <rects>
        <_>
          16 19 4 2 -1.</_>
        <_>
          16 19 2 1 2.</_>
        <_>
          18 20 2 1 2.</_></rects>
      <tilted>0</tilted></_>
    <_>
      <rects>
        <_>
          16 31 16 1 -1.</_>
        <_>
          24 31 8 1 2.</_></rects>
      <tilted>0</tilted></_>
    <_>
      <rects>
        <_>
          17 0 8 1 -1.</_>
        <_>
          21 0 4 1 2.</_></rects>
      <tilted>0</tilted></_>
    <_>
      <rects>
        <_>
          17 2 6 2 -1.</_>
        <_>
          17 2 3 1 2.</_>
        <_>
          20 3 3 1 2.</_></rects>
      <tilted>0</tilted></_>
    <_>
      <rects>
        <_>
          17 2 3 12 -1.</_>
        <_>
          17 8 3 6 2.</_></rects>
      <tilted>0</tilted></_>
    <_>
      <rects>
        <_>
          17 6 12 2 -1.</_>
        <_>
          21 6 4 2 3.</_></rects>
      <tilted>0</tilted></_>
    <_>
      <rects>
        <_>
          17 7 8 24 -1.</_>
        <_>
          21 7 4 24 2.</_></rects>
      <tilted>0</tilted></_>
    <_>
      <rects>
        <_>
          17 11 10 4 -1.</_>
        <_>
          17 11 5 2 2.</_>
        <_>
          22 13 5 2 2.</_></rects>
      <tilted>0</tilted></_>
    <_>
      <rects>
        <_>
          17 15 5 2 -1.</_>
        <_>
          17 16 5 1 2.</_></rects>
      <tilted>0</tilted></_>
    <_>
      <rects>
        <_>
          18 0 14 2 -1.</_>
        <_>
          18 0 7 1 2.</_>
        <_>
          25 1 7 1 2.</_></rects>
      <tilted>0</tilted></_>
    <_>
      <rects>
        <_>
          18 2 2 22 -1.</_>
        <_>
          18 2 1 11 2.</_>
        <_>
          19 13 1 11 2.</_></rects>
      <tilted>0</tilted></_>
    <_>
      <rects>
        <_>
          18 5 12 3 -1.</_>
        <_>
          22 5 4 3 3.</_></rects>
      <tilted>0</tilted></_>
    <_>
      <rects>
        <_>
          18 11 1 3 -1.</_>
        <_>
          18 12 1 1 3.</_></rects>
      <tilted>0</tilted></_>
    <_>
      <rects>
        <_>
          18 12 3 2 -1.</_>
        <_>
          19 12 1 2 3.</_></rects>
      <tilted>0</tilted></_>
    <_>
      <rects>
        <_>
          18 12 14 14 -1.</_>
        <_>
          25 12 7 14 2.</_></rects>
      <tilted>0</tilted></_>
    <_>
      <rects>
        <_>
          18 16 1 2 -1.</_>
        <_>
          18 17 1 1 2.</_></rects>
      <tilted>0</tilted></_>
    <_>
      <rects>
        <_>
          18 21 3 7 -1.</_>
        <_>
          19 21 1 7 3.</_></rects>
      <tilted>0</tilted></_>
    <_>
      <rects>
        <_>
          19 0 12 2 -1.</_>
        <_>
          23 0 4 2 3.</_></rects>
      <tilted>0</tilted></_>
    <_>
      <rects>
        <_>
          19 8 3 5 -1.</_>
        <_>
          20 8 1 5 3.</_></rects>
      <tilted>0</tilted></_>
    <_>
      <rects>
        <_>
          19 10 9 9 -1.</_>
        <_>
          19 13 9 3 3.</_></rects>
      <tilted>0</tilted></_>
    <_>
      <rects>
        <_>
          19 11 3 2 -1.</_>
        <_>
          20 11 1 2 3.</_></rects>
      <tilted>0</tilted></_>
    <_>
      <rects>
        <_>
          19 12 4 18 -1.</_>
        <_>
          19 12 2 9 2.</_>
        <_>
          21 21 2 9 2.</_></rects>
      <tilted>0</tilted></_>
    <_>
      <rects>
        <_>
          19 13 7 3 -1.</_>
        <_>
          19 14 7 1 3.</_></rects>
      <tilted>0</tilted></_>
    <_>
      <rects>
        <_>
          19 18 12 13 -1.</_>
        <_>
          23 18 4 13 3.</_></rects>
      <tilted>0</tilted></_>
    <_>
      <rects>
        <_>
          20 12 4 2 -1.</_>
        <_>
          20 12 2 1 2.</_>
        <_>
          22 13 2 1 2.</_></rects>
      <tilted>0</tilted></_>
    <_>
      <rects>
        <_>
          20 12 10 12 -1.</_>
        <_>
          20 12 5 6 2.</_>
        <_>
          25 18 5 6 2.</_></rects>
      <tilted>0</tilted></_>
    <_>
      <rects>
        <_>
          20 15 2 4 -1.</_>
        <_>
          20 15 1 2 2.</_>
        <_>
          21 17 1 2 2.</_></rects>
      <tilted>0</tilted></_>
    <_>
      <rects>
        <_>
          20 26 2 2 -1.</_>
        <_>
          20 26 1 1 2.</_>
        <_>
          21 27 1 1 2.</_></rects>
      <tilted>0</tilted></_>
    <_>
      <rects>
        <_>
          21 3 4 22 -1.</_>
        <_>
          21 3 2 11 2.</_>
        <_>
          23 14 2 11 2.</_></rects>
      <tilted>0</tilted></_>
    <_>
      <rects>
        <_>
          21 6 2 1 -1.</_>
        <_>
          22 6 1 1 2.</_></rects>
      <tilted>0</tilted></_>
    <_>
      <rects>
        <_>
          21 25 8 4 -1.</_>
        <_>
          25 25 4 4 2.</_></rects>
      <tilted>0</tilted></_>
    <_>
      <rects>
        <_>
          22 0 7 30 -1.</_>
        <_>
          22 15 7 15 2.</_></rects>
      <tilted>0</tilted></_>
    <_>
      <rects>
        <_>
          22 12 1 2 -1.</_>
        <_>
          22 13 1 1 2.</_></rects>
      <tilted>0</tilted></_>
    <_>
      <rects>
        <_>
          22 14 10 5 -1.</_>
        <_>
          27 14 5 5 2.</_></rects>
      <tilted>0</tilted></_>
    <_>
      <rects>
        <_>
          22 19 9 3 -1.</_>
        <_>
          25 19 3 3 3.</_></rects>
      <tilted>0</tilted></_>
    <_>
      <rects>
        <_>
          22 21 6 6 -1.</_>
        <_>
          24 21 2 6 3.</_></rects>
      <tilted>0</tilted></_>
    <_>
      <rects>
        <_>
          22 27 1 3 -1.</_>
        <_>
          22 28 1 1 3.</_></rects>
      <tilted>0</tilted></_>
    <_>
      <rects>
        <_>
          22 27 4 2 -1.</_>
        <_>
          22 27 2 1 2.</_>
        <_>
          24 28 2 1 2.</_></rects>
      <tilted>0</tilted></_>
    <_>
      <rects>
        <_>
          23 9 3 18 -1.</_>
        <_>
          24 9 1 18 3.</_></rects>
      <tilted>0</tilted></_>
    <_>
      <rects>
        <_>
          23 12 3 16 -1.</_>
        <_>
          24 12 1 16 3.</_></rects>
      <tilted>0</tilted></_>
    <_>
      <rects>
        <_>
          23 12 2 16 -1.</_>
        <_>
          23 20 2 8 2.</_></rects>
      <tilted>0</tilted></_>
    <_>
      <rects>
        <_>
          23 19 9 7 -1.</_>
        <_>
          26 19 3 7 3.</_></rects>
      <tilted>0</tilted></_>
    <_>
      <rects>
        <_>
          23 26 7 2 -1.</_>
        <_>
          23 27 7 1 2.</_></rects>
      <tilted>0</tilted></_>
    <_>
      <rects>
        <_>
          24 0 3 1 -1.</_>
        <_>
          25 0 1 1 3.</_></rects>
      <tilted>0</tilted></_>
    <_>
      <rects>
        <_>
          24 16 7 16 -1.</_>
        <_>
          24 24 7 8 2.</_></rects>
      <tilted>0</tilted></_>
    <_>
      <rects>
        <_>
          24 18 2 2 -1.</_>
        <_>
          24 18 1 1 2.</_>
        <_>
          25 19 1 1 2.</_></rects>
      <tilted>0</tilted></_>
    <_>
      <rects>
        <_>
          24 18 1 9 -1.</_>
        <_>
          24 21 1 3 3.</_></rects>
      <tilted>0</tilted></_>
    <_>
      <rects>
        <_>
          25 0 2 4 -1.</_>
        <_>
          25 0 1 2 2.</_>
        <_>
          26 2 1 2 2.</_></rects>
      <tilted>0</tilted></_>
    <_>
      <rects>
        <_>
          25 26 7 6 -1.</_>
        <_>
          25 28 7 2 3.</_></rects>
      <tilted>0</tilted></_>
    <_>
      <rects>
        <_>
          26 1 1 2 -1.</_>
        <_>
          26 2 1 1 2.</_></rects>
      <tilted>0</tilted></_>
    <_>
      <rects>
        <_>
          26 6 2 2 -1.</_>
        <_>
          26 6 1 1 2.</_>
        <_>
          27 7 1 1 2.</_></rects>
      <tilted>0</tilted></_>
    <_>
      <rects>
        <_>
          26 24 6 6 -1.</_>
        <_>
          26 27 6 3 2.</_></rects>
      <tilted>0</tilted></_>
    <_>
      <rects>
        <_>
          26 31 2 1 -1.</_>
        <_>
          27 31 1 1 2.</_></rects>
      <tilted>0</tilted></_>
    <_>
      <rects>
        <_>
          28 6 4 12 -1.</_>
        <_>
          28 10 4 4 3.</_></rects>
      <tilted>0</tilted></_>
    <_>
      <rects>
        <_>
          28 18 4 2 -1.</_>
        <_>
          30 18 2 2 2.</_></rects>
      <tilted>0</tilted></_>
    <_>
      <rects>
        <_>
          28 26 2 2 -1.</_>
        <_>
          28 26 1 1 2.</_>
        <_>
          29 27 1 1 2.</_></rects>
      <tilted>0</tilted></_>
    <_>
      <rects>
        <_>
          28 27 3 5 -1.</_>
        <_>
          29 27 1 5 3.</_></rects>
      <tilted>0</tilted></_>
    <_>
      <rects>
        <_>
          30 0 2 8 -1.</_>
        <_>
          31 0 1 8 2.</_></rects>
      <tilted>0</tilted></_>
    <_>
      <rects>
        <_>
          30 3 2 1 -1.</_>
        <_>
          31 3 1 1 2.</_></rects>
      <tilted>0</tilted></_>
    <_>
      <rects>
        <_>
          30 5 1 3 -1.</_>
        <_>
          30 6 1 1 3.</_></rects>
      <tilted>0</tilted></_>
    <_>
      <rects>
        <_>
          30 16 2 6 -1.</_>
        <_>
          31 16 1 6 2.</_></rects>
      <tilted>0</tilted></_>
    <_>
      <rects>
        <_>
          30 30 1 2 -1.</_>
        <_>
          30 31 1 1 2.</_></rects>
      <tilted>0</tilted></_>
    <_>
      <rects>
        <_>
          31 0 1 4 -1.</_>
        <_>
          31 2 1 2 2.</_></rects>
      <tilted>0</tilted></_>
    <_>
      <rects>
        <_>
          31 1 1 3 -1.</_>
        <_>
          31 2 1 1 3.</_></rects>
      <tilted>0</tilted></_>
    <_>
      <rects>
        <_>
          31 5 1 9 -1.</_>
        <_>
          31 8 1 3 3.</_></rects>
      <tilted>0</tilted></_>
    <_>
      <rects>
        <_>
          31 6 1 2 -1.</_>
        <_>
          31 7 1 1 2.</_></rects>
      <tilted>0</tilted></_>
    <_>
      <rects>
        <_>
          31 8 1 4 -1.</_>
        <_>
          31 10 1 2 2.</_></rects>
      <tilted>0</tilted></_>
    <_>
      <rects>
        <_>
          31 13 1 15 -1.</_>
        <_>
          31 18 1 5 3.</_></rects>
      <tilted>0</tilted></_>
    <_>
      <rects>
        <_>
          31 22 1 6 -1.</_>
        <_>
          31 25 1 3 2.</_></rects>
      <tilted>0</tilted></_></features></cascade>
</opencv_storage>
